<?xml version="1.0"?>
<opencv_storage>
<stage0>
  <maxWeakCount>6</maxWeakCount>
  <stageThreshold>-1.5045095682144165e+00</stageThreshold>
  <weakClassifiers>
    <_>
      <internalNodes>
        0 -1 82043 -3.8754366338253021e-02</internalNodes>
      <leafValues>
        -1.4754098653793335e-01 -8.8845402002334595e-01</leafValues></_>
    <_>
      <internalNodes>
        0 -1 113075 6.4455537358298898e-04</internalNodes>
      <leafValues>
        -6.2675660848617554e-01 2.5121390819549561e-01</leafValues></_>
    <_>
      <internalNodes>
        0 -1 92588 -2.2451519034802914e-03</internalNodes>
      <leafValues>
        4.7960150241851807e-01 -4.1517749428749084e-01</leafValues></_>
    <_>
      <internalNodes>
        0 -1 94764 -9.3039678176864982e-04</internalNodes>
      <leafValues>
        6.3444662094116211e-01 -3.6100715398788452e-01</leafValues></_>
    <_>
      <internalNodes>
        0 -1 159737 -7.0161986513994634e-05</internalNodes>
      <leafValues>
        4.2657887935638428e-01 -3.9933800697326660e-01</leafValues></_>
    <_>
      <internalNodes>
        0 -1 112633 1.0960564017295837e-02</internalNodes>
      <leafValues>
        -3.7051871418952942e-01 4.4531065225601196e-01</leafValues></_></weakClassifiers></stage0>
</opencv_storage>
